%YAML:1.0
---
opencv_ml_svm:
   format: 3
   svmType: C_SVC
   kernel:
      type: LINEAR
   C: 100.
   term_criteria: { epsilon:9.9999999999999995e-07, iterations:1000 }
   var_count: 22
   class_count: 6
   class_labels: !!opencv-matrix
      rows: 6
      cols: 1
      dt: i
      data: [ 0, 1, 2, 3, 4, 5 ]
   sv_total: 15
   support_vectors:
      - [ 5.42101086e-20, 8.67361738e-19, 6.65989239e-04, 9.47378052e-04,
          -4.07372427e-04, -6.54227697e-05, -2.90495431e-04,
          -5.54302847e-03, -1.70902858e-04, -1.29121868e-03,
          -7.94832781e-03, -9.31170478e-04, -1.57723366e-03,
          -7.09170941e-03, -5.92803699e-04, -1.43034046e-03,
          -3.78685351e-03, 1.78650208e-03, -4.24813450e-04,
          1.05098751e-03, 1.75164582e-03, 2.04581302e-04 ]
      - [ 1.08420217e-19, -1.21395788e-04, 1.12234717e-02,
          4.97189758e-04, -2.48181823e-05, 5.03606675e-03,
          -6.01705047e-04, 8.38070468e-04, 9.54581832e-04,
          -4.66511468e-04, 6.34031778e-04, -3.89134302e-03,
          7.93023151e-04, -5.73249010e-04, -8.08733981e-03,
          1.35870569e-03, -1.07268209e-03, -9.46352258e-04,
          -8.41156754e-04, -9.39348305e-04, -2.48728931e-04,
          -1.25117984e-03 ]
      - [ 2.03287907e-19, -5.88719267e-05, 4.47387155e-03,
          7.28010258e-04, -4.35961585e-04, 2.35747406e-03,
          -7.11456174e-04, -4.26884973e-03, 7.76255911e-04,
          -8.73617479e-04, -5.32551762e-03, -1.20823178e-03,
          -1.02465763e-03, -4.72815474e-03, -2.57045403e-03,
          -9.38934332e-04, -2.52851029e-03, 9.60475882e-04,
          3.35523975e-04, 7.44215213e-04, 1.28951890e-03, 9.95861250e-04 ]
      - [ 2.71050543e-20, -1.56558817e-04, 1.16653284e-02,
          3.91045166e-03, -1.17524585e-03, 6.83063222e-03,
          3.07186041e-04, -3.36771511e-04, 2.57716677e-03,
          1.06243300e-03, -1.21730694e-03, -4.19343496e-03,
          4.75847919e-04, -5.45966504e-05, -9.16517340e-03,
          3.70731053e-04, 2.73142336e-06, -2.38387380e-04,
          4.92739840e-04, -6.05754787e-04, -8.64772446e-05,
          1.26351975e-03 ]
      - [ 1.73472348e-18, 0., 1.28284292e-02, 1.06292509e-01,
          -3.63198444e-02, -1.17189493e-02, -2.27685412e-03,
          -1.55511908e-02, -2.39912402e-02, 2.28408710e-04,
          8.95428995e-04, -3.11046280e-02, -9.40498151e-03,
          -1.45473368e-02, -2.26733778e-02, -1.34544326e-02,
          -1.27125047e-02, -3.71711291e-02, -1.53935514e-02,
          -1.32305808e-02, -1.03131253e-02, -2.99877371e-03 ]
      - [ 0., -5.31925180e-05, 4.02924838e-03, -5.05938195e-04,
          -1.39309132e-05, 2.39834329e-03, 5.94744459e-04,
          3.54734994e-03, 7.86229619e-04, 1.31248962e-03, 4.46723169e-03,
          -1.02320430e-03, 1.34390034e-03, 4.41207131e-03,
          -2.76089343e-03, 8.99591076e-04, 3.33163631e-03,
          -1.58674258e-03, 2.37459186e-04, -4.89973347e-04,
          -7.33454537e-04, -1.92396366e-03 ]
      - [ 4.87890978e-19, -6.16214995e-04, 1.22960126e-02,
          -7.01140962e-04, 4.11460242e-05, 2.34885421e-02,
          -5.40097244e-04, -7.60974013e-04, 9.04649869e-03,
          -1.00392301e-03, -1.46014255e-03, -5.08622499e-03,
          -9.19658574e-04, -9.14181466e-04, -2.00002268e-02,
          -2.66483956e-04, -1.29942608e-03, 2.26844073e-04,
          -7.40723044e-04, 5.15376858e-04, 8.67361738e-19,
          -3.55227478e-03 ]
      - [ -1.08420217e-19, -7.69337057e-05, 4.12915787e-03,
          6.34341734e-04, -2.18862682e-04, 3.42335389e-03,
          1.01972336e-03, 2.96963938e-03, 1.65537628e-03, 2.11993651e-03,
          5.67471469e-03, -1.00501475e-03, 2.04132707e-03,
          6.07368536e-03, -3.21594696e-03, 1.54499104e-03,
          4.34417324e-03, -2.06122015e-04, 3.78337660e-04,
          -7.24163954e-04, -8.01097660e-04, -5.71691606e-04 ]
      - [ 1.08420217e-19, 1.73472348e-18, -1.14523177e-03,
          8.54807033e-04, -8.81846936e-05, -8.91234493e-04,
          9.63812578e-04, 4.40573692e-03, -9.24225547e-04,
          2.00359570e-03, 7.55866757e-03, 2.08199548e-04, 1.57615554e-03,
          7.46718654e-03, 1.12769415e-03, 9.43424995e-04, 5.38223004e-03,
          -1.03995844e-03, 3.54598596e-04, -1.18293846e-03,
          -1.54691958e-03, -1.54548290e-03 ]
      - [ 0., 1.73472348e-18, 2.55177350e-04, -1.06425071e-03,
          -9.63342463e-05, -4.38721443e-04, -9.87158157e-04,
          -6.37483224e-03, 4.35271068e-05, -1.39359315e-03,
          -7.00978655e-03, 7.45326281e-04, -1.55779498e-03,
          -6.84558274e-03, 1.27962418e-03, -1.08483469e-03,
          -5.06305601e-03, 5.47364645e-04, 5.13605017e-04,
          7.01525772e-04, 1.13997934e-03, 7.99826637e-04 ]
      - [ 8.32667268e-17, 1.77635684e-15, -2.90052872e-02,
          1.05147585e-01, -4.27713990e-02, 6.89162686e-03,
          -5.00549600e-02, -8.95322859e-03, 4.67743240e-02,
          -3.98386270e-02, -2.03076247e-02, 4.01823446e-02,
          -3.87979597e-02, -2.89949421e-02, 3.52224521e-02,
          -9.80998296e-03, -4.81057204e-02, -1.69093963e-02,
          2.36852304e-03, -2.46452019e-02, -1.41669093e-02,
          3.95107456e-02 ]
      - [ -1.08420217e-19, 1.40930904e-04, -1.10759484e-02,
          2.48954864e-03, -8.91718781e-04, -5.04675321e-03,
          -1.79210061e-03, 1.38048781e-03, -5.33136772e-04,
          -4.53204702e-04, 6.62044622e-04, 4.66123316e-03,
          -5.23884315e-04, 5.21684997e-04, 9.10062715e-03,
          -8.82290711e-04, 6.41117687e-04, -2.59326538e-03,
          8.75606202e-04, 3.07675858e-04, 2.30713064e-04, 2.59480393e-03 ]
      - [ -2.16840434e-19, -3.46944695e-18, -8.42979236e-04,
          1.46581989e-03, -3.45112610e-04, 1.95761953e-04,
          1.27133226e-03, 4.44831746e-03, 7.57460250e-04, 2.86091235e-03,
          7.91832712e-03, -2.16935601e-04, 2.82286410e-03,
          8.60311463e-03, -3.44251515e-04, 2.22944375e-03,
          6.09041331e-03, 6.78161101e-04, 7.84831573e-05,
          -9.04001878e-04, -1.23621337e-03, 1.22309639e-03 ]
      - [ 0., 5.71319288e-05, -4.70435387e-03, 4.56869777e-04,
          1.08902750e-04, -2.95813521e-03, 9.05973196e-04,
          3.20016942e-03, -1.42700062e-03, 1.25950540e-03,
          4.69306065e-03, 7.20440003e-04, 9.55257972e-04, 4.64452617e-03,
          2.87748524e-03, 5.78626001e-04, 3.34242848e-03,
          -3.37662030e-04, -2.68207659e-04, -7.72135914e-04,
          -1.05779560e-03, -1.32600323e-03 ]
      - [ -3.25260652e-19, 1.84835299e-04, -1.13251880e-02,
          -1.71730272e-03, 3.63830943e-04, -8.41705594e-03,
          -3.01444461e-03, 2.29040207e-03, -3.41340061e-03,
          -2.29881098e-03, 2.15253606e-03, 4.28577140e-03,
          -6.01660635e-04, -1.72686996e-05, 1.01619903e-02,
          -7.87522760e-04, 4.95322747e-04, -2.50522350e-03,
          9.85726016e-04, -9.78344004e-04, 6.73376955e-04,
          -1.60742595e-04 ]
   uncompressed_sv_total: 52
   uncompressed_support_vectors:
      - [ 5., 100., 4.56740990e+01, -3.99086800e+01, -2.74565792e+01,
          2.29105606e+01, -2.93486309e+01, -8.81935501e+01,
          6.13039780e+00, -3.33527718e+01, -9.89609070e+01,
          -1.89840107e+01, -3.15307903e+01, -9.08242874e+01,
          -4.14383202e+01, -2.30132694e+01, -6.69282837e+01, 65., 20.,
          26., 33., 97. ]
      - [ 5., 100., 5.25401192e+01, -3.19294701e+01, -2.63318901e+01,
          2.31456509e+01, -2.86943207e+01, -8.22622833e+01,
          4.82225704e+00, -2.59498405e+01, -9.48014221e+01,
          -1.75930595e+01, -2.76304798e+01, -8.34755402e+01,
          -2.43000507e+01, -3.22775307e+01, -3.80102386e+01, 63., 22.,
          25., 46., 77. ]
      - [ 5., 100., 4.64242287e+01, -3.88159790e+01, -2.62703094e+01,
          2.25845795e+01, -3.78006401e+01, -7.18649368e+01,
          5.64041710e+00, -4.24090118e+01, -7.76821365e+01,
          -1.62510605e+01, -4.43046684e+01, -6.65672531e+01,
          -3.30322495e+01, -3.87215309e+01, -4.56025200e+01, 51., 18.,
          24., 27., 81. ]
      - [ 5., 100., 4.24438400e+01, -3.08033295e+01, -3.07569294e+01,
          1.91244507e+01, -3.97527618e+01, -7.64765930e+01,
          5.53994799e+00, -3.97380981e+01, -8.88581467e+01,
          -1.37872801e+01, -3.90036316e+01, -8.03658829e+01,
          -3.07070999e+01, -3.09721699e+01, -6.12851295e+01, 52., 18.,
          21., 26., 79. ]
      - [ 5., 100., 4.66291008e+01, -3.32035408e+01, -2.82560692e+01,
          2.08032093e+01, -4.64209900e+01, -6.51659927e+01,
          5.06929779e+00, -4.62699013e+01, -7.92221069e+01,
          -1.67658997e+01, -4.54815102e+01, -6.75640564e+01,
          -2.82602406e+01, -4.17785797e+01, -3.67557106e+01, 46., 21.,
          24., 33., 75. ]
      - [ 5., 100., 4.75812416e+01, -3.25334816e+01, -2.81576500e+01,
          2.16676407e+01, -4.33673096e+01, -6.74448929e+01,
          5.35103989e+00, -4.61451607e+01, -7.81971130e+01,
          -1.63039207e+01, -4.64226418e+01, -6.50566101e+01,
          -2.70511799e+01, -4.17645683e+01, -3.17967205e+01, 48., 19.,
          25., 35., 75. ]
      - [ 5., 100., 4.27590218e+01, -2.88166809e+01, -2.99513206e+01,
          1.91433907e+01, -3.77317505e+01, -7.77966614e+01,
          6.42365980e+00, -3.80210304e+01, -8.98497009e+01,
          -1.27976198e+01, -3.72257195e+01, -8.12311096e+01,
          -2.99110794e+01, -2.88770599e+01, -6.22229881e+01, 54., 17.,
          21., 26., 79. ]
      - [ 5., 100., 4.24495392e+01, -2.75335407e+01, -2.95250702e+01,
          1.90426903e+01, -3.50509605e+01, -7.94706879e+01,
          7.28989410e+00, -3.63284111e+01, -9.02788162e+01,
          -1.24279900e+01, -3.48603210e+01, -8.23978729e+01,
          -3.01809292e+01, -2.63870392e+01, -6.36250496e+01, 55., 16.,
          21., 27., 80. ]
      - [ 5., 100., 4.23114090e+01, -2.87975197e+01, -2.96077709e+01,
          1.86973591e+01, -3.46711998e+01, -8.10386505e+01,
          5.16800690e+00, -3.43097382e+01, -9.30374908e+01,
          -1.37104301e+01, -3.36670113e+01, -8.42063065e+01,
          -3.06795502e+01, -2.61870003e+01, -6.41065521e+01, 56., 18.,
          20., 27., 80. ]
      - [ 5., 100., 6.30835686e+01, -3.05191002e+01, -2.11440601e+01,
          1.98336391e+01, -3.45733185e+01, 9.25355053e+00,
          7.88700914e+00, -3.23175697e+01, 1.35938501e+01,
          -5.25899506e+00, -3.00523300e+01, 1.62338600e+01,
          -1.93123798e+01, -2.65592308e+01, 1.10499001e+01, 53., 12.,
          13., 15., 88. ]
      - [ 5., 100., 6.31117516e+01, -2.98654499e+01, -2.09722404e+01,
          1.98378296e+01, -3.43805504e+01, 9.10020065e+00,
          7.85419512e+00, -3.22083282e+01, 1.35006800e+01,
          -5.22648621e+00, -2.99877205e+01, 1.62299595e+01,
          -1.92794704e+01, -2.65039101e+01, 1.09554195e+01, 52., 12.,
          13., 15., 88. ]
      - [ 5., 100., 2.99240398e+01, -4.92103386e+01, -2.46075191e+01,
          2.35343609e+01, -4.25143204e+01, -9.91572571e+00,
          7.06259203e+00, -3.10519600e+01, 1.21448803e+01,
          -5.86555481e+00, -2.77302208e+01, 1.57786303e+01,
          -2.07185707e+01, -2.49678993e+01, 1.16519203e+01, 17., 29.,
          13., 15., 66. ]
      - [ 5., 100., 2.50012798e+01, -5.07459984e+01, -2.48775501e+01,
          2.37673492e+01, -4.47508392e+01, -1.31745501e+01,
          6.55651903e+00, -2.94202309e+01, 1.26715403e+01,
          -6.33189392e+00, -2.59078598e+01, 1.63210793e+01,
          -2.09396801e+01, -2.37197895e+01, 1.21473703e+01, 13., 34.,
          13., 15., 64. ]
      - [ 5., 100., 5.72861481e+00, -4.62956085e+01, -2.14783707e+01,
          2.01946907e+01, -3.00285301e+01, 1.07070599e+01,
          8.89459229e+00, -3.02843895e+01, 1.48329401e+01,
          -3.33957696e+00, -2.92498894e+01, 1.81440392e+01,
          -1.67260399e+01, -2.58636208e+01, 1.37073097e+01, 38., 12.,
          12., 14., 46. ]
      - [ 5., 100., 6.81539488e+00, -4.58771095e+01, -1.92821999e+01,
          1.86645699e+01, -2.70332508e+01, 1.20326700e+01,
          7.44421005e+00, -2.78942108e+01, 1.64384403e+01,
          -4.12591600e+00, -2.66737499e+01, 2.02829800e+01,
          -1.58557396e+01, -2.35716705e+01, 1.49120398e+01, 38., 12.,
          12., 13., 46. ]
      - [ 5., 100., 2.15106392e+01, -5.20218887e+01, -2.47891808e+01,
          2.13701000e+01, -3.88969803e+01, -4.87921906e+00,
          6.54148912e+00, -2.90836391e+01, 1.20862303e+01,
          -5.52072096e+00, -2.59351692e+01, 1.69720497e+01,
          -1.86741905e+01, -2.42993908e+01, 1.29330902e+01, 23., 24.,
          13., 13., 61. ]
      - [ 5., 101., -5.62745590e+01, -4.19285889e+01, -2.41360703e+01,
          -2.33378601e+01, -4.42419701e+01, -7.38141479e+01,
          -6.81201601e+00, -5.16848602e+01, -7.51145325e+01,
          1.52972498e+01, -5.04831200e+01, -6.78680267e+01,
          3.45782890e+01, -4.03273201e+01, -5.13023796e+01, 59., 18.,
          23., 27., 94. ]
      - [ 5., 101., -5.75728416e+01, -4.13003502e+01, -2.38276405e+01,
          -2.39662704e+01, -4.82038689e+01, -6.82743988e+01,
          -7.74208117e+00, -5.40117111e+01, -7.13156662e+01,
          1.41760702e+01, -5.19004784e+01, -6.57256165e+01,
          3.36412888e+01, -4.15419312e+01, -4.95368500e+01, 56., 17.,
          22., 27., 94. ]
      - [ 5., 101., -5.94388885e+01, -4.30972290e+01, -2.31031303e+01,
          -2.31326103e+01, -3.84911499e+01, -8.05513306e+01,
          -4.66484499e+00, -4.91660194e+01, -7.95069122e+01,
          1.66865406e+01, -4.99549217e+01, -7.00777893e+01,
          3.48933411e+01, -4.10569687e+01, -5.27024612e+01, 68., 21.,
          23., 26., 98. ]
      - [ 5., 101., -5.23571892e+01, -3.03965092e+01, -3.00149002e+01,
          -2.24641895e+01, -3.61071815e+01, -8.16531830e+01,
          -2.74982309e+00, -4.43111382e+01, -8.49674530e+01,
          1.79718094e+01, -4.90653191e+01, -6.93294678e+01,
          3.45889091e+01, -4.24766197e+01, -4.93321609e+01, 59., 21.,
          26., 26., 89. ]
      - [ 5., 101., -4.95209808e+01, -3.26334801e+01, -2.94428291e+01,
          -2.24377193e+01, -3.04908600e+01, -8.64598236e+01,
          -9.87753928e-01, -3.12940502e+01, -9.72394409e+01,
          1.95038509e+01, -4.12699394e+01, -7.85853729e+01,
          3.67759399e+01, -3.80711784e+01, -5.49638481e+01, 63., 24.,
          29., 29., 90. ]
      - [ 5., 101., -5.68213615e+01, -2.73424797e+01, -2.85475292e+01,
          -2.44210205e+01, -1.58899403e+01, -9.44755478e+01,
          2.16921806e+00, -2.36594696e+01, -1.01958504e+02,
          1.77729492e+01, -4.31487389e+01, -7.39094009e+01,
          3.72778702e+01, -3.92553711e+01, -5.26494217e+01, 74., 28.,
          37., 29., 97. ]
      - [ 5., 101., -2.14873199e+01, -4.57718010e+01, -1.58586302e+01,
          -1.75642891e+01, -2.93915405e+01, 1.07053404e+01,
          -7.90693903e+00, -3.16727409e+01, 1.49209204e+01,
          3.08248997e+00, -3.00845795e+01, 1.75648003e+01,
          1.55242004e+01, -2.74953098e+01, 1.29603004e+01, 31., 10., 11.,
          13., 50. ]
      - [ 5., 101., -3.17494793e+01, -4.47959595e+01, -1.83396492e+01,
          -1.79724407e+01, -2.97524109e+01, 6.35865784e+00,
          -8.15100479e+00, -3.29201393e+01, 1.11803598e+01,
          3.32416201e+00, -3.04353905e+01, 1.38045702e+01,
          1.56940804e+01, -2.74743996e+01, 9.86033630e+00, 32., 11., 12.,
          13., 57. ]
      - [ 5., 101., -4.10610695e+01, -4.79626312e+01, -2.44132900e+01,
          -2.09615803e+01, -4.23189201e+01, -5.55233383e+00,
          -6.78922987e+00, -2.99467793e+01, 1.07728300e+01,
          6.36726379e+00, -2.70055408e+01, 1.56688299e+01,
          1.99711494e+01, -2.33520908e+01, 1.13538904e+01, 28., 24., 14.,
          14., 74. ]
      - [ 5., 101., -3.59347382e+01, -4.97435913e+01, -2.40307503e+01,
          -2.03468800e+01, -4.22189598e+01, -4.31855011e+00,
          -7.03016710e+00, -2.94893799e+01, 1.18126602e+01,
          5.88703918e+00, -2.69712696e+01, 1.64655209e+01,
          1.94397106e+01, -2.34003296e+01, 1.19981604e+01, 26., 24., 13.,
          14., 71. ]
      - [ 5., 101., -1.07429800e+01, -4.45239296e+01, -1.97275791e+01,
          -2.00952301e+01, -2.47939606e+01, 1.47924404e+01,
          -6.94068003e+00, -2.46867809e+01, 2.02107697e+01,
          4.29956388e+00, -2.38100395e+01, 2.32201405e+01,
          1.68418007e+01, -2.20705299e+01, 1.84137001e+01, 40., 14., 11.,
          13., 52. ]
      - [ 5., 101., -1.75038605e+01, -4.33773384e+01, -2.54442692e+01,
          -1.86413097e+01, -3.10123596e+01, 5.34698915e+00,
          -7.35601807e+00, -2.80286293e+01, 1.50695295e+01,
          5.79394484e+00, -2.63051605e+01, 1.83577099e+01,
          1.78126106e+01, -2.26497803e+01, 1.39991798e+01, 33., 15., 13.,
          13., 56. ]
      - [ 5., 101., -1.38273697e+01, -4.41136093e+01, -2.45331802e+01,
          -1.84151592e+01, -3.02407398e+01, 6.12063980e+00,
          -8.20081329e+00, -2.69435101e+01, 1.59631796e+01,
          5.17083406e+00, -2.52716694e+01, 1.92425098e+01,
          1.71091595e+01, -2.19057293e+01, 1.46853304e+01, 33., 14., 13.,
          13., 54. ]
      - [ 5., 101., -6.06988182e+01, -2.89548607e+01, -2.27103405e+01,
          -1.89409904e+01, -3.68868484e+01, 4.53330994e+00,
          -8.25457001e+00, -3.82104683e+01, 8.59802246e+00,
          5.66890001e+00, -3.42151299e+01, 1.23024302e+01,
          1.90385609e+01, -2.92355003e+01, 8.16573334e+00, 50., 11., 14.,
          14., 85. ]
      - [ 5., 101., -5.01613693e+01, -4.56292915e+01, -2.35133305e+01,
          -1.81703491e+01, -3.90324211e+01, -7.69782867e+01,
          -8.52668953e+00, -5.12334404e+01, -7.16901169e+01,
          1.08430700e+01, -5.09395294e+01, -6.57877274e+01,
          2.54883804e+01, -4.03090706e+01, -5.08365402e+01, 62., 16.,
          20., 23., 80. ]
      - [ 5., 101., -5.36235619e+01, -4.83545494e+01, -2.04566307e+01,
          -1.79492302e+01, -4.53517799e+01, -6.64339981e+01,
          -1.04340601e+01, -5.60599098e+01, -6.12439003e+01,
          8.39149094e+00, -5.46323891e+01, -5.86523514e+01,
          2.21807003e+01, -4.37625694e+01, -4.32874794e+01, 58., 14.,
          19., 23., 79. ]
      - [ 5., 101., -2.05083599e+01, -6.04909401e+01, -2.17690697e+01,
          -3.21339912e+01, -3.99811516e+01, -7.96068726e+01,
          -1.18714600e+01, -4.56006317e+01, -8.61877594e+01,
          1.34315596e+01, -4.72109108e+01, -7.29538879e+01,
          3.32988701e+01, -4.31410294e+01, -4.72479210e+01, 62., 22.,
          28., 32., 62. ]
      - [ 5., 101., -1.98560791e+01, -6.11146393e+01, -2.16850109e+01,
          -3.21265717e+01, -4.13355598e+01, -7.84518280e+01,
          -1.18548403e+01, -4.65334816e+01, -8.51803894e+01,
          1.35269003e+01, -4.78509407e+01, -7.19699783e+01,
          3.30275612e+01, -4.37484512e+01, -4.64110603e+01, 61., 21.,
          28., 32., 60. ]
      - [ 5., 101., -4.70585518e+01, -5.58000488e+01, -2.11964397e+01,
          -2.16794109e+01, -1.66602592e+01, -9.22163467e+01,
          -9.43000603e+00, -4.91135406e+01, -7.11060181e+01,
          1.09832401e+01, -5.11765289e+01, -6.28490906e+01,
          2.34940891e+01, -4.50286903e+01, -3.81073189e+01, 84., 40.,
          22., 28., 73. ]
      - [ 5., 101., -4.00134201e+01, -5.52889290e+01, -2.20028801e+01,
          -1.98673401e+01, -3.66933594e+01, -7.98154068e+01,
          -1.07363100e+01, -4.73552208e+01, -7.60410919e+01,
          1.01322203e+01, -4.82237396e+01, -6.97548065e+01,
          2.33950901e+01, -4.21173706e+01, -4.45811806e+01, 63., 14.,
          21., 29., 68. ]
      - [ 5., 101., -3.65433693e+01, -5.53411598e+01, -2.28594303e+01,
          -2.04517593e+01, -4.46272087e+01, -7.03361969e+01,
          -1.08878098e+01, -4.99455910e+01, -7.59233322e+01,
          1.04323196e+01, -4.77746010e+01, -7.33091507e+01,
          2.42647305e+01, -4.10890198e+01, -5.05069504e+01, 51., 12.,
          21., 27., 68. ]
      - [ 5., 101., -3.00309696e+01, -5.23018494e+01, -2.25543804e+01,
          -1.98259392e+01, -4.46901016e+01, -6.43444672e+01,
          -9.79512024e+00, -4.91850395e+01, -6.93310165e+01,
          1.50419502e+01, -2.44822502e+01, -9.14208832e+01,
          3.63241386e+01, -1.01284904e+01, -7.25268326e+01, 43., 12.,
          41., 31., 93. ]
      - [ 5., 101., -3.09712105e+01, -5.34566193e+01, -2.16016502e+01,
          -1.98527508e+01, -4.85014496e+01, -5.30310402e+01,
          -9.65594482e+00, -4.96431503e+01, -7.10878906e+01,
          1.44245100e+01, -2.42294903e+01, -9.12329330e+01,
          3.58810692e+01, -1.08230696e+01, -7.18821335e+01, 33., 20.,
          40., 31., 93. ]
      - [ 5., 101., -3.21091499e+01, -5.43732109e+01, -2.09676704e+01,
          -2.11263599e+01, -5.13673210e+01, -4.31286812e+01,
          -1.06965504e+01, -4.95421219e+01, -7.11167908e+01,
          1.32352505e+01, -2.79383507e+01, -8.83640594e+01,
          3.37246895e+01, -1.46881399e+01, -7.01042328e+01, 24., 29.,
          36., 30., 91. ]
      - [ 5., 101., -3.45760307e+01, -5.45672798e+01, -2.10374508e+01,
          -2.23169403e+01, -5.24537506e+01, -3.75778008e+01,
          -1.20849800e+01, -4.90195313e+01, -7.50220413e+01,
          1.03257399e+01, -3.96381493e+01, -7.84114609e+01,
          2.83776894e+01, -2.74965992e+01, -6.24527512e+01, 20., 38.,
          24., 26., 80. ]
      - [ 5., 101., -3.66267204e+01, -5.71540413e+01, -2.06294403e+01,
          -2.22050095e+01, -5.19275818e+01, -4.19154510e+01,
          -1.39951696e+01, -5.73323517e+01, -6.01972694e+01,
          7.96681595e+00, -5.38211403e+01, -6.18733482e+01,
          2.26013794e+01, -4.46869392e+01, -4.36750908e+01, 26., 20.,
          22., 25., 64. ]
      - [ 5., 101., -6.16073608e+01, -5.17315598e+01, -1.89150009e+01,
          -2.92718391e+01, -3.95911217e+01, -7.49378586e+01,
          -1.01372700e+01, -4.59572182e+01, -7.78793869e+01,
          1.49716501e+01, -4.66153488e+01, -6.52071304e+01,
          3.87591591e+01, -4.15280304e+01, -4.43919601e+01, 65., 20.,
          28., 32., 104. ]
      - [ 5., 100., 1.49262199e+01, -6.19198914e+01, -1.71424599e+01,
          2.11927891e+01, -3.72789001e+00, -9.66727982e+01,
          1.49361801e+00, -9.54678345e+00, -1.07655403e+02,
          -1.46065302e+01, -3.49944382e+01, -7.97076416e+01,
          -2.56263599e+01, -3.67273293e+01, -4.69545403e+01, 98., 23.,
          41., 34., 56. ]
      - [ 5., 100., 4.85624619e+01, -5.51924896e+01, -2.30062008e+01,
          3.26531410e+01, -5.16567001e+01, -5.48338509e+01,
          1.73699303e+01, -5.33016586e+01, -7.06572266e+01,
          -8.04286194e+00, -4.54753799e+01, -6.61995316e+01,
          -3.28547783e+01, -3.56262207e+01, -4.76064301e+01, 35., 22.,
          26., 32., 87. ]
      - [ 5., 100., 5.01265984e+01, -5.36026115e+01, -2.36476192e+01,
          3.14956398e+01, -4.99672394e+01, -5.73213196e+01,
          1.52231102e+01, -5.16110001e+01, -7.18939133e+01,
          -1.07822504e+01, -4.41551514e+01, -6.64790115e+01,
          -3.50387993e+01, -3.38806801e+01, -4.73971291e+01, 38., 21.,
          27., 32., 90. ]
      - [ 5., 100., 5.62933884e+01, -5.10171585e+01, -2.04528694e+01,
          2.84719296e+01, -3.60913506e+01, -7.58938904e+01,
          9.94870758e+00, -3.93063087e+01, -8.40895996e+01,
          -1.69165192e+01, -3.62304001e+01, -7.43934784e+01,
          -4.12271309e+01, -2.99440193e+01, -4.97017899e+01, 63., 20.,
          28., 35., 103. ]
      - [ 5., 100., 5.96239319e+01, -4.98394699e+01, -1.93746204e+01,
          3.16095295e+01, -3.72047615e+01, -7.51945190e+01,
          1.20601501e+01, -3.96395111e+01, -8.78865738e+01,
          -1.54654999e+01, -3.62559090e+01, -7.82465515e+01,
          -4.03481903e+01, -2.94098606e+01, -5.42542992e+01, 63., 23.,
          29., 35., 107. ]
      - [ 5., 100., 3.14050503e+01, -5.13546219e+01, -2.39461193e+01,
          1.97097206e+01, -1.63882809e+01, -9.70631866e+01,
          -1.51406097e+00, -1.13287296e+01, -1.13137604e+02,
          -2.08084202e+01, -1.09749203e+01, -1.01817802e+02,
          -3.81777802e+01, -6.15367079e+00, -7.57244415e+01, 81., 27.,
          22., 31., 97. ]
      - [ 5., 100., 2.35826702e+01, -5.27995796e+01, -2.20094604e+01,
          9.74055099e+00, -1.41742697e+01, -9.82107162e+01,
          -4.18223619e+00, -2.03922005e+01, -1.11673203e+02,
          -1.90253296e+01, -2.51827602e+01, -9.94268875e+01,
          -3.36634407e+01, -1.98376007e+01, -7.45489731e+01, 86., 20.,
          19., 29., 84. ]
      - [ 5., 100., 2.21991291e+01, -5.19156418e+01, -2.19626102e+01,
          1.08336401e+01, -1.53942299e+01, -9.76519318e+01,
          -2.01936007e+00, -2.05667191e+01, -1.10449501e+02,
          -1.71702309e+01, -2.89029999e+01, -9.53952637e+01,
          -3.20813293e+01, -2.34105396e+01, -7.20080338e+01, 84., 18.,
          22., 28., 79. ]
      - [ 5., 100., 3.74148407e+01, -4.74170914e+01, -2.49138603e+01,
          1.50119600e+01, -2.16776199e+01, -9.48311615e+01,
          7.68950701e+00, -3.75399513e+01, -9.29056473e+01,
          -9.90472412e+00, -4.63698006e+01, -6.96393585e+01,
          -2.38145905e+01, -3.95547295e+01, -4.85744209e+01, 77., 17.,
          30., 26., 66. ]
   decision_functions:
      -
         sv_count: 1
         rho: 1.0041255512564080e+00
         alpha: [ 1. ]
         index: [ 0 ]
      -
         sv_count: 1
         rho: -3.7925780758401528e-01
         alpha: [ 1. ]
         index: [ 1 ]
      -
         sv_count: 1
         rho: 7.8124658023325977e-01
         alpha: [ 1. ]
         index: [ 2 ]
      -
         sv_count: 1
         rho: 1.4311419353236517e-02
         alpha: [ 1. ]
         index: [ 3 ]
      -
         sv_count: 1
         rho: -2.1232444701165565e+00
         alpha: [ 1. ]
         index: [ 4 ]
      -
         sv_count: 1
         rho: -9.0580805602731018e-01
         alpha: [ 1. ]
         index: [ 5 ]
      -
         sv_count: 1
         rho: -2.5774653479474507e-01
         alpha: [ 1. ]
         index: [ 6 ]
      -
         sv_count: 1
         rho: -8.2596997568571917e-01
         alpha: [ 1. ]
         index: [ 7 ]
      -
         sv_count: 1
         rho: -1.2160379522841251e+00
         alpha: [ 1. ]
         index: [ 8 ]
      -
         sv_count: 1
         rho: 1.1407848704271111e+00
         alpha: [ 1. ]
         index: [ 9 ]
      -
         sv_count: 1
         rho: 1.3668579636057430e+01
         alpha: [ 1. ]
         index: [ 10 ]
      -
         sv_count: 1
         rho: 1.7950529884828113e-02
         alpha: [ 1. ]
         index: [ 11 ]
      -
         sv_count: 1
         rho: -9.6656675698220540e-01
         alpha: [ 1. ]
         index: [ 12 ]
      -
         sv_count: 1
         rho: -8.1083328303131419e-01
         alpha: [ 1. ]
         index: [ 13 ]
      -
         sv_count: 1
         rho: -1.9788439891122214e-01
         alpha: [ 1. ]
         index: [ 14 ]
